digraph Tree {
node [shape=box, style="filled, rounded", color="black", fontname=helvetica] ;
edge [fontname=helvetica] ;
0 [label="X[2] <= 0.5\ngini = 0.49\nsamples = 125\nvalue = [86, 117]", fillcolor="#cbe5f8"] ;
1 [label="X[11] <= 0.5\ngini = 0.41\nsamples = 55\nvalue = [63, 26]", fillcolor="#f0b58b"] ;
0 -> 1 [labeldistance=2.5, labelangle=45, headlabel="True"] ;
2 [label="X[12] <= 2.5\ngini = 0.5\nsamples = 29\nvalue = [22, 25]", fillcolor="#e7f3fc"] ;
1 -> 2 ;
3 [label="X[4] <= 309.0\ngini = 0.31\nsamples = 16\nvalue = [5, 21]", fillcolor="#68b4eb"] ;
2 -> 3 ;
4 [label="X[7] <= 151.5\ngini = 0.23\nsamples = 13\nvalue = [3, 20]", fillcolor="#57ace9"] ;
3 -> 4 ;
5 [label="X[9] <= 0.05\ngini = 0.42\nsamples = 6\nvalue = [3, 7]", fillcolor="#8ec7f0"] ;
4 -> 5 ;
6 [label="gini = 0.0\nsamples = 2\nvalue = [3, 0]", fillcolor="#e58139"] ;
5 -> 6 ;
7 [label="gini = 0.0\nsamples = 4\nvalue = [0, 7]", fillcolor="#399de5"] ;
5 -> 7 ;
8 [label="gini = 0.0\nsamples = 7\nvalue = [0, 13]", fillcolor="#399de5"] ;
4 -> 8 ;
9 [label="X[6] <= 0.5\ngini = 0.44\nsamples = 3\nvalue = [2, 1]", fillcolor="#f2c09c"] ;
3 -> 9 ;
10 [label="gini = 0.0\nsamples = 1\nvalue = [0, 1]", fillcolor="#399de5"] ;
9 -> 10 ;
11 [label="gini = 0.0\nsamples = 2\nvalue = [2, 0]", fillcolor="#e58139"] ;
9 -> 11 ;
12 [label="X[4] <= 213.0\ngini = 0.31\nsamples = 13\nvalue = [17, 4]", fillcolor="#eb9f68"] ;
2 -> 12 ;
13 [label="X[4] <= 175.5\ngini = 0.48\nsamples = 6\nvalue = [6, 4]", fillcolor="#f6d5bd"] ;
12 -> 13 ;
14 [label="gini = 0.0\nsamples = 2\nvalue = [3, 0]", fillcolor="#e58139"] ;
13 -> 14 ;
15 [label="X[10] <= 1.5\ngini = 0.49\nsamples = 4\nvalue = [3, 4]", fillcolor="#cee6f8"] ;
13 -> 15 ;
16 [label="gini = 0.0\nsamples = 2\nvalue = [3, 0]", fillcolor="#e58139"] ;
15 -> 16 ;
17 [label="gini = 0.0\nsamples = 2\nvalue = [0, 4]", fillcolor="#399de5"] ;
15 -> 17 ;
18 [label="gini = 0.0\nsamples = 7\nvalue = [11, 0]", fillcolor="#e58139"] ;
12 -> 18 ;
19 [label="X[1] <= 0.5\ngini = 0.05\nsamples = 26\nvalue = [41, 1]", fillcolor="#e6843e"] ;
1 -> 19 ;
20 [label="X[9] <= 1.5\ngini = 0.5\nsamples = 2\nvalue = [1, 1]", fillcolor="#ffffff"] ;
19 -> 20 ;
21 [label="gini = 0.0\nsamples = 1\nvalue = [1, 0]", fillcolor="#e58139"] ;
20 -> 21 ;
22 [label="gini = 0.0\nsamples = 1\nvalue = [0, 1]", fillcolor="#399de5"] ;
20 -> 22 ;
23 [label="gini = 0.0\nsamples = 24\nvalue = [40, 0]", fillcolor="#e58139"] ;
19 -> 23 ;
24 [label="X[1] <= 0.5\ngini = 0.32\nsamples = 70\nvalue = [23, 91]", fillcolor="#6bb6ec"] ;
0 -> 24 [labeldistance=2.5, labelangle=-45, headlabel="False"] ;
25 [label="X[7] <= 173.5\ngini = 0.17\nsamples = 29\nvalue = [5, 50]", fillcolor="#4da7e8"] ;
24 -> 25 ;
26 [label="X[0] <= 56.5\ngini = 0.08\nsamples = 27\nvalue = [2, 49]", fillcolor="#41a1e6"] ;
25 -> 26 ;
27 [label="gini = 0.0\nsamples = 18\nvalue = [0, 34]", fillcolor="#399de5"] ;
26 -> 27 ;
28 [label="X[5] <= 0.5\ngini = 0.21\nsamples = 9\nvalue = [2, 15]", fillcolor="#53aae8"] ;
26 -> 28 ;
29 [label="gini = 0.0\nsamples = 6\nvalue = [0, 12]", fillcolor="#399de5"] ;
28 -> 29 ;
30 [label="X[3] <= 138.0\ngini = 0.48\nsamples = 3\nvalue = [2, 3]", fillcolor="#bddef6"] ;
28 -> 30 ;
31 [label="gini = 0.0\nsamples = 1\nvalue = [2, 0]", fillcolor="#e58139"] ;
30 -> 31 ;
32 [label="gini = 0.0\nsamples = 2\nvalue = [0, 3]", fillcolor="#399de5"] ;
30 -> 32 ;
33 [label="X[3] <= 119.0\ngini = 0.38\nsamples = 2\nvalue = [3, 1]", fillcolor="#eeab7b"] ;
25 -> 33 ;
34 [label="gini = 0.0\nsamples = 1\nvalue = [0, 1]", fillcolor="#399de5"] ;
33 -> 34 ;
35 [label="gini = 0.0\nsamples = 1\nvalue = [3, 0]", fillcolor="#e58139"] ;
33 -> 35 ;
36 [label="X[11] <= 0.5\ngini = 0.42\nsamples = 41\nvalue = [18, 41]", fillcolor="#90c8f0"] ;
24 -> 36 ;
37 [label="X[10] <= 0.5\ngini = 0.16\nsamples = 25\nvalue = [3, 32]", fillcolor="#4ca6e7"] ;
36 -> 37 ;
38 [label="X[2] <= 1.5\ngini = 0.44\nsamples = 3\nvalue = [1, 2]", fillcolor="#9ccef2"] ;
37 -> 38 ;
39 [label="gini = 0.0\nsamples = 1\nvalue = [1, 0]", fillcolor="#e58139"] ;
38 -> 39 ;
40 [label="gini = 0.0\nsamples = 2\nvalue = [0, 2]", fillcolor="#399de5"] ;
38 -> 40 ;
41 [label="X[4] <= 259.5\ngini = 0.12\nsamples = 22\nvalue = [2, 30]", fillcolor="#46a4e7"] ;
37 -> 41 ;
42 [label="gini = 0.0\nsamples = 18\nvalue = [0, 28]", fillcolor="#399de5"] ;
41 -> 42 ;
43 [label="X[6] <= 0.5\ngini = 0.5\nsamples = 4\nvalue = [2, 2]", fillcolor="#ffffff"] ;
41 -> 43 ;
44 [label="gini = 0.0\nsamples = 1\nvalue = [0, 1]", fillcolor="#399de5"] ;
43 -> 44 ;
45 [label="X[0] <= 47.0\ngini = 0.44\nsamples = 3\nvalue = [2, 1]", fillcolor="#f2c09c"] ;
43 -> 45 ;
46 [label="gini = 0.0\nsamples = 1\nvalue = [1, 0]", fillcolor="#e58139"] ;
45 -> 46 ;
47 [label="X[12] <= 2.5\ngini = 0.5\nsamples = 2\nvalue = [1, 1]", fillcolor="#ffffff"] ;
45 -> 47 ;
48 [label="gini = 0.0\nsamples = 1\nvalue = [0, 1]", fillcolor="#399de5"] ;
47 -> 48 ;
49 [label="gini = 0.0\nsamples = 1\nvalue = [1, 0]", fillcolor="#e58139"] ;
47 -> 49 ;
50 [label="X[3] <= 141.0\ngini = 0.47\nsamples = 16\nvalue = [15, 9]", fillcolor="#f5cdb0"] ;
36 -> 50 ;
51 [label="X[8] <= 0.5\ngini = 0.39\nsamples = 11\nvalue = [11, 4]", fillcolor="#eeaf81"] ;
50 -> 51 ;
52 [label="X[4] <= 255.5\ngini = 0.28\nsamples = 8\nvalue = [10, 2]", fillcolor="#ea9a61"] ;
51 -> 52 ;
53 [label="X[9] <= 1.65\ngini = 0.17\nsamples = 7\nvalue = [10, 1]", fillcolor="#e88e4d"] ;
52 -> 53 ;
54 [label="X[3] <= 131.0\ngini = 0.28\nsamples = 4\nvalue = [5, 1]", fillcolor="#ea9a61"] ;
53 -> 54 ;
55 [label="gini = 0.0\nsamples = 2\nvalue = [3, 0]", fillcolor="#e58139"] ;
54 -> 55 ;
56 [label="X[7] <= 160.0\ngini = 0.44\nsamples = 2\nvalue = [2, 1]", fillcolor="#f2c09c"] ;
54 -> 56 ;
57 [label="gini = 0.0\nsamples = 1\nvalue = [0, 1]", fillcolor="#399de5"] ;
56 -> 57 ;
58 [label="gini = 0.0\nsamples = 1\nvalue = [2, 0]", fillcolor="#e58139"] ;
56 -> 58 ;
59 [label="gini = 0.0\nsamples = 3\nvalue = [5, 0]", fillcolor="#e58139"] ;
53 -> 59 ;
60 [label="gini = 0.0\nsamples = 1\nvalue = [0, 1]", fillcolor="#399de5"] ;
52 -> 60 ;
61 [label="X[10] <= 1.5\ngini = 0.44\nsamples = 3\nvalue = [1, 2]", fillcolor="#9ccef2"] ;
51 -> 61 ;
62 [label="gini = 0.0\nsamples = 1\nvalue = [1, 0]", fillcolor="#e58139"] ;
61 -> 62 ;
63 [label="gini = 0.0\nsamples = 2\nvalue = [0, 2]", fillcolor="#399de5"] ;
61 -> 63 ;
64 [label="X[4] <= 245.0\ngini = 0.49\nsamples = 5\nvalue = [4, 5]", fillcolor="#d7ebfa"] ;
50 -> 64 ;
65 [label="gini = 0.0\nsamples = 2\nvalue = [0, 5]", fillcolor="#399de5"] ;
64 -> 65 ;
66 [label="gini = 0.0\nsamples = 3\nvalue = [4, 0]", fillcolor="#e58139"] ;
64 -> 66 ;
}